{"57859": {"best_alpha": 0.407675248040584, "w": [2.1359357712575133, -1.1118510588418806, -2.141667649429977, -4.082856057762405, 1.176847395455687, 0.32596191168292743, 1.0102000010425294, 5.630285395920354, 0.30565322160105335, 4.290663982915161, 1.0612260045735598, 3.604279802179197, 6.168690126942737, -0.8464166271422827, -0.050020981966653305, 3.637079972775787, -2.3092881935314837], "w_idx": [16, 30, 35, 60, 78, 104, 113, 127, 128, 137, 165, 192, 207, 228, 241, 249, 260], "w_name": ["poleur_lag2", "pna_lag4", "wp_lag4", "ao_lag7", "ao_lag9", "epnp_lag12", "epnp_lag13", "aao_lag15", "nao_lag15", "nao_lag16", "pna_lag19", "pna_lag22", "nino34_lag24", "era5_lag13", "giss_lag2", "giss_lag10", "giss_lag21"], "b": -0.8986576735333188, "sign_score": 0.39473684210526316}, "57927": {"best_alpha": 0.5402404466766076, "w": [-3.911230905856665e-15], "w_idx": [248], "w_name": ["giss_lag9"], "b": -0.2308625730994095, "sign_score": 0.5789473684210527}, "57941": {"best_alpha": 0.6367152592654173, "w": [4.638219505730486, 3.603361836825883, 1.7888341381940334], "w_idx": [78, 127, 247], "w_name": ["ao_lag9", "aao_lag15", "giss_lag8"], "b": 3.163367032320028, "sign_score": 0.4298245614035088}, "57942": {"best_alpha": 0.6679207114879258, "w": [6.2177104753333234e-15], "w_idx": [127], "w_name": ["aao_lag15"], "b": 1.8810745614035107, "sign_score": 0.38596491228070173}, "57947": {"best_alpha": 0.7224512224478192, "w": [-3.433372632677379, -1.99438000149833, 0.5472227511260166, 0.35615067557634456, 2.377795710699234], "w_idx": [1, 30, 74, 78, 104], "w_name": ["aao_lag1", "pna_lag4", "nao_lag9", "ao_lag9", "epnp_lag12"], "b": -1.5703156382345054, "sign_score": 0.5087719298245614}, "57949": {"best_alpha": 0.8435562945629993, "w": [-3.1008273491165405e-15], "w_idx": [28], "w_name": ["aao_lag4"], "b": -3.416937134502929, "sign_score": 0.5614035087719298}, "57954": {"best_alpha": 0.7145202531186831, "w": [-4.651241023674811e-15], "w_idx": [28], "w_name": ["aao_lag4"], "b": -0.5641301169590764, "sign_score": 0.5789473684210527}, "57955": {"best_alpha": 0.3792949522607088, "w": [-0.2404711738095632, -0.7116725449163793, 2.7133982422884495, -0.5975119794247659, -0.032386283952314014, 0.8979442839670335, 5.9680200399661185, 0.07718440396033605, -0.21852422094044283, 5.455947958423974, -2.13178321438664, 3.0580144088223107, 1.5542123052822787, 6.527333808235015, 1.1939579608913629, 0.7943115004640842, -3.9727276441673003, 2.549295481917515], "w_idx": [32, 46, 66, 83, 101, 104, 127, 128, 130, 137, 154, 164, 179, 207, 237, 238, 241, 249], "w_name": ["epnp_lag4", "aao_lag6", "pna_lag8", "nao_lag10", "nao_lag12", "epnp_lag12", "aao_lag15", "nao_lag15", "qbo_lag15", "nao_lag16", "aao_lag18", "nao_lag19", "wp_lag20", "nino34_lag24", "era5_lag22", "era5_lag23", "giss_lag2", "giss_lag10"], "b": -1.9970943964583057, "sign_score": 0.631578947368421}, "57956": {"best_alpha": 0.8469313674227945, "w": [5.224203192982826e-15], "w_idx": [249], "w_name": ["giss_lag10"], "b": 0.200752923976626, "sign_score": 0.43859649122807015}, "57960": {"best_alpha": 0.5958986426256542, "w": [2.9269459805145934], "w_idx": [207], "w_name": ["nino34_lag24"], "b": -3.026654276146694, "sign_score": 0.5614035087719298}, "57964": {"best_alpha": 0.3728716937765353, "w": [0.3071490516595814, 0.709405018349909, 0.5405742595520323, -0.5481043449316934, -4.090534875735595, 0.5647545334643859, 6.814118839937798, 0.28772999675679106, 0.6675309856485918, -0.21448535799537521], "w_idx": [5, 127, 128, 130, 154, 164, 207, 234, 237, 241], "w_name": ["epnp_lag1", "aao_lag15", "nao_lag15", "qbo_lag15", "aao_lag18", "nao_lag19", "nino34_lag24", "era5_lag19", "era5_lag22", "giss_lag2"], "b": -1.0399424296601156, "sign_score": 0.6403508771929824}, "57988": {"best_alpha": 0.619696266447063, "w": [4.2085018145628235], "w_idx": [207], "w_name": ["nino34_lag24"], "b": -0.03958001373672117, "sign_score": 0.5701754385964912}, "57989": {"best_alpha": 0.584458437896197, "w": [1.755307830649597, 10.79458937029551], "w_idx": [136, 207], "w_name": ["aao_lag16", "nino34_lag24"], "b": -1.0217440882680087, "sign_score": 0.6228070175438597}, "57996": {"best_alpha": 0.5097799641808405, "w": [-1.5906316071948086, -0.16908968457563808, -3.4328748039991375, 7.592348824551383], "w_idx": [43, 154, 190, 207], "w_name": ["poleur_lag5", "aao_lag18", "aao_lag22", "nino34_lag24"], "b": -1.9357432319899932, "sign_score": 0.5701754385964912}, "59004": {"best_alpha": 0.49078045824258876, "w": [-3.1070227474297346e-15], "w_idx": [248], "w_name": ["giss_lag9"], "b": 2.505336257309943, "sign_score": 0.40350877192982454}, "59012": {"best_alpha": 0.40513583360003924, "w": [3.1771411548429433e-15], "w_idx": [69], "w_name": ["ao_lag8"], "b": 1.8204605263157905, "sign_score": 0.41228070175438597}, "59017": {"best_alpha": 0.4912169458222721, "w": [1.5462340382417976e-15], "w_idx": [70], "w_name": ["poleur_lag8"], "b": 1.2981944444444393, "sign_score": 0.38596491228070173}, "59022": {"best_alpha": 0.3061653727151082, "w": [-3.1139138740085555, -2.86897223336467, -2.834707189393477, -2.3375390948512607, 3.6970439931995145, 3.345888369598916, 1.8699961185065865, -0.15682098359509392, 0.4212033466385514, 0.17509619437564597, 2.583153413414104, 4.174301858321547, -4.066100448953087, 0.4242664562088639, -0.32534912246567077, 0.038799922301467275, -0.0784848447364569, -0.5902971783878596, 3.362476382638908], "w_idx": [28, 30, 35, 56, 74, 78, 107, 121, 125, 127, 136, 137, 140, 146, 176, 231, 236, 242, 247], "w_name": ["aao_lag4", "pna_lag4", "wp_lag4", "nao_lag7", "nao_lag9", "ao_lag9", "wp_lag12", "qbo_lag14", "wp_lag14", "aao_lag15", "aao_lag16", "nao_lag16", "epnp_lag16", "nao_lag17", "epnp_lag20", "era5_lag16", "era5_lag21", "giss_lag3", "giss_lag8"], "b": -0.590915107119859, "sign_score": 0.5087719298245614}, "59023": {"best_alpha": 0.6270567009790251, "w": [0.8657271613087884], "w_idx": [78], "w_name": ["ao_lag9"], "b": -1.5985212544487175, "sign_score": 0.4824561403508772}, "59031": {"best_alpha": 0.3867336702172482, "w": [-1.5641905680150763, -1.775915496392138, -0.017580001739398474, -0.4679919432501903, 6.443283767474266, 1.667835110748765, 1.9830721021806077, 0.8736671567270693], "w_idx": [1, 28, 35, 56, 78, 127, 136, 224], "w_name": ["aao_lag1", "aao_lag4", "wp_lag4", "nao_lag7", "ao_lag9", "aao_lag15", "aao_lag16", "era5_lag9"], "b": -1.9171220140660854, "sign_score": 0.5350877192982456}, "59033": {"best_alpha": 0.6333538801930182, "w": [1.5544276188333309e-15], "w_idx": [127], "w_name": ["aao_lag15"], "b": -0.9560160818713408, "sign_score": 0.5964912280701754}, "59034": {"best_alpha": 0.5569621370584968, "w": [-0.5709605723838135, 1.9015944620137295], "w_idx": [28, 224], "w_name": ["aao_lag4", "era5_lag9"], "b": -1.249271760109701, "sign_score": 0.543859649122807}, "59037": {"best_alpha": 0.7421340912336248, "w": [1.6885178113828483], "w_idx": [224], "w_name": ["era5_lag9"], "b": -3.070516720516335, "sign_score": 0.5789473684210527}, "59038": {"best_alpha": 0.6574856439121518, "w": [1.5544276188333309e-15], "w_idx": [127], "w_name": ["aao_lag15"], "b": -3.884576023391815, "sign_score": 0.5175438596491229}, "59041": {"best_alpha": 0.5911905163802328, "w": [-3.1008273491165405e-15], "w_idx": [28], "w_name": ["aao_lag4"], "b": -2.2965935672514712, "sign_score": 0.5}, "59044": {"best_alpha": 0.757611639319169, "w": [6.2177104753333234e-15], "w_idx": [127], "w_name": ["aao_lag15"], "b": 0.17101608187133274, "sign_score": 0.4824561403508772}, "59045": {"best_alpha": 0.5126664018853168, "w": [-6.1964143090069035, 0.006470617686307926, -2.9700024337034114, -4.753445031928493, 0.30187104363024636], "w_idx": [28, 104, 124, 154, 224], "w_name": ["aao_lag4", "epnp_lag12", "poleur_lag14", "aao_lag18", "era5_lag9"], "b": -1.3383601735347705, "sign_score": 0.6052631578947368}, "59046": {"best_alpha": 0.7159980757027492, "w": [-0.9653320306829201], "w_idx": [28], "w_name": ["aao_lag4"], "b": -0.7941031116303341, "sign_score": 0.5263157894736842}, "59051": {"best_alpha": 0.41381285695678355, "w": [-0.2717794319297675, -0.1935301763921852, 2.9210833813095065, 2.4259551732892373, -3.8645803502272744, -1.722440917271127, 2.693032296514593, 1.6522285028597903], "w_idx": [28, 60, 127, 136, 154, 186, 207, 234], "w_name": ["aao_lag4", "ao_lag7", "aao_lag15", "aao_lag16", "aao_lag18", "ao_lag21", "nino34_lag24", "era5_lag19"], "b": -1.6203738877178142, "sign_score": 0.5}, "59052": {"best_alpha": 0.6112108210125162, "w": [0.24776542415368594], "w_idx": [234], "w_name": ["era5_lag19"], "b": -0.8904316237511101, "sign_score": 0.5789473684210527}, "59053": {"best_alpha": 0.37574047712149444, "w": [0.021252868482861443, 0.8790734013994413, -0.6925407188707282, -0.428142147420624, 1.736239496830221, -0.5510610069435907, -0.1730227296757604, 1.609778293138882, 2.1704193158151646, -5.437484527089486, -0.039144474758751595, 1.6546753731212758, 0.4760347017523356], "w_idx": [4, 41, 55, 69, 104, 120, 121, 127, 136, 154, 157, 234, 237], "w_name": ["qbo_lag1", "epnp_lag5", "aao_lag7", "ao_lag8", "epnp_lag12", "pna_lag14", "qbo_lag14", "aao_lag15", "aao_lag16", "aao_lag18", "qbo_lag18", "era5_lag19", "era5_lag22"], "b": -0.7401483672370657, "sign_score": 0.5526315789473685}, "59055": {"best_alpha": 0.40197454395550597, "w": [-0.6973605522329042, 0.5933263979228743, 0.8095921609207141, -1.2720170196027765, 1.5956326876971458, -4.800992041573119, -0.006770414980253728, 0.954243842049315], "w_idx": [55, 104, 122, 124, 136, 154, 186, 234], "w_name": ["aao_lag7", "epnp_lag12", "epnp_lag14", "poleur_lag14", "aao_lag16", "aao_lag18", "ao_lag21", "era5_lag19"], "b": -1.6264794371159386, "sign_score": 0.543859649122807}, "59057": {"best_alpha": 0.6028806604617842, "w": [1.1346408736541986], "w_idx": [234], "w_name": ["era5_lag19"], "b": -3.5349518307535823, "sign_score": 0.5964912280701754}, "59058": {"best_alpha": 0.6991769008782638, "w": [1.6972249636262688], "w_idx": [234], "w_name": ["era5_lag19"], "b": -3.00901259478658, "sign_score": 0.5964912280701754}, "59059": {"best_alpha": 0.6740844194846732, "w": [0.9837941356749478, -0.7054195032604245, 2.477400089671446], "w_idx": [104, 154, 234], "w_name": ["epnp_lag12", "aao_lag18", "era5_lag19"], "b": -4.282632326990693, "sign_score": 0.6140350877192983}, "59064": {"best_alpha": 0.46303962171849783, "w": [0.30533715898266195, -1.3515596908805452, 0.2649858199634884, 2.6595532816818843, 4.212117516465679, -2.8186609413421824, -0.1954459880929516, -1.3549995932144472, 0.27501038817361406, 2.1703530040532777], "w_idx": [5, 55, 91, 104, 136, 154, 166, 190, 207, 234], "w_name": ["epnp_lag1", "aao_lag7", "aao_lag11", "epnp_lag12", "aao_lag16", "aao_lag18", "qbo_lag19", "aao_lag22", "nino34_lag24", "era5_lag19"], "b": -1.990352191902279, "sign_score": 0.5}, "59065": {"best_alpha": 0.568947363763513, "w": [-4.500151164821279, 0.5534536759201165], "w_idx": [190, 234], "w_name": ["aao_lag22", "era5_lag19"], "b": -0.6727319567475091, "sign_score": 0.5087719298245614}, "59071": {"best_alpha": 0.5024867194964693, "w": [-0.11481970263525255, -0.5031958047284979, -7.061340387984964, 4.918161015423177, 2.2198214192551826], "w_idx": [148, 154, 190, 207, 234], "w_name": ["qbo_lag17", "aao_lag18", "aao_lag22", "nino34_lag24", "era5_lag19"], "b": -3.631146729070391, "sign_score": 0.6228070175438597}, "59072": {"best_alpha": 0.5133363259175872, "w": [-2.1956596315192107, -5.290838976439084, 4.172455948046691, 1.944473987553237], "w_idx": [154, 190, 207, 234], "w_name": ["aao_lag18", "aao_lag22", "nino34_lag24", "era5_lag19"], "b": -2.5699784554462486, "sign_score": 0.5877192982456141}, "59074": {"best_alpha": 0.6128909622279279, "w": [-3.733196950949036, 1.1125350384968171, 2.075773576093767], "w_idx": [190, 207, 234], "w_name": ["aao_lag22", "nino34_lag24", "era5_lag19"], "b": -0.33810406533106563, "sign_score": 0.6140350877192983}, "59075": {"best_alpha": 0.6937845958877406, "w": [7.608970117700902], "w_idx": [207], "w_name": ["nino34_lag24"], "b": -1.0649273624367648, "sign_score": 0.5526315789473685}, "59081": {"best_alpha": 0.5680215405175539, "w": [-2.7258683381306854, 10.047345216016323, 0.08080200578956906, 0.6326548409623467], "w_idx": [190, 207, 234, 258], "w_name": ["aao_lag22", "nino34_lag24", "era5_lag19", "giss_lag19"], "b": -3.2010408525488834, "sign_score": 0.5877192982456141}, "59082": {"best_alpha": 0.5242539861883371, "w": [0.2796019954007824, -0.3403323693988858, -3.5936632842446787, 0.6801067592259128, 10.121229167864547, 1.5007889795720686], "w_idx": [30, 154, 190, 203, 207, 234], "w_name": ["pna_lag4", "aao_lag18", "aao_lag22", "epnp_lag23", "nino34_lag24", "era5_lag19"], "b": -2.855719159735148, "sign_score": 0.5701754385964912}, "59087": {"best_alpha": 0.7412630902102803, "w": [3.2687105908100627, 4.129571976847203, 5.679124864526973, 6.537106640640381, -2.19201635263203], "w_idx": [136, 173, 207, 210, 259], "w_name": ["aao_lag16", "nao_lag20", "nino34_lag24", "pna_lag24", "giss_lag20"], "b": -1.7927228217030684, "sign_score": 0.5}, "59088": {"best_alpha": 0.6322012479433274, "w": [0.8013564236039026, 10.979321971459349, -0.181899497071201, -0.39375330998881003, 2.51786309582204, -0.019465659972606807], "w_idx": [136, 207, 209, 213, 234, 249], "w_name": ["aao_lag16", "nino34_lag24", "nao_lag24", "ao_lag24", "era5_lag19", "giss_lag10"], "b": -3.4467413617834084, "sign_score": 0.6052631578947368}, "59090": {"best_alpha": 0.4670862516749714, "w": [1.38386756659116, -0.8740025529669686, -0.2645162170030059, 1.8356605059102387, -4.202506645523077, 10.857941971918867, 1.0713482091112019], "w_idx": [8, 43, 124, 136, 190, 207, 234], "w_name": ["wp_lag1", "poleur_lag5", "poleur_lag14", "aao_lag16", "aao_lag22", "nino34_lag24", "era5_lag19"], "b": 0.7143526833440355, "sign_score": 0.5614035087719298}, "59094": {"best_alpha": 0.7243644408232188, "w": [3.5579466654820506], "w_idx": [207], "w_name": ["nino34_lag24"], "b": -2.7282730058198834, "sign_score": 0.6140350877192983}, "59096": {"best_alpha": 0.653613044991655, "w": [4.317773860124784, 0.8322804697532381], "w_idx": [207, 234], "w_name": ["nino34_lag24", "era5_lag19"], "b": -0.7836514584709732, "sign_score": 0.5877192982456141}, "59097": {"best_alpha": 0.7827466944634718, "w": [1.02890561746116, -0.36926177930101883, 4.705626743999603, 3.808936775425114, -0.4261446414818323], "w_idx": [173, 199, 207, 210, 249], "w_name": ["nao_lag20", "aao_lag23", "nino34_lag24", "pna_lag24", "giss_lag10"], "b": -1.5748084634353168, "sign_score": 0.5350877192982456}, "59099": {"best_alpha": 0.4032842109106547, "w": [-0.8551337569593288, 1.7929055580613678, 2.4450447289437043, -5.438101751556325, 2.3524151156342077, -0.1936404405742703, -5.26622663083505, -0.4692438429802923, -2.0003354167300307, -2.8758655530810535, -4.124799121658647, 1.9009858700791402, -5.085280212821211, 7.538241912411176, 1.711931583128964, 0.14747182314100896, -0.06540983795388493, -0.00017160675015656836, 0.8855420458464058, -2.681812285586309, -4.485488372543284, -1.506832019965159, -0.3906938588803538], "w_idx": [10, 21, 30, 43, 47, 69, 70, 86, 111, 140, 154, 163, 190, 207, 210, 218, 223, 226, 234, 247, 249, 259, 262], "w_name": ["aao_lag2", "pna_lag3", "pna_lag4", "poleur_lag5", "nao_lag6", "ao_lag8", "poleur_lag8", "epnp_lag10", "pna_lag13", "epnp_lag16", "aao_lag18", "aao_lag19", "aao_lag22", "nino34_lag24", "pna_lag24", "era5_lag3", "era5_lag8", "era5_lag11", "era5_lag19", "giss_lag8", "giss_lag10", "giss_lag20", "giss_lag23"], "b": 1.9807630135520586, "sign_score": 0.5087719298245614}, "59106": {"best_alpha": 0.6192908133942125, "w": [-6.191367402898402, -2.051775267258554, 0.6925207215722795, -1.2752420769628898, 0.48381117197389084, 2.7690235512336945, 0.0065271551541630475, -0.4311237720666322], "w_idx": [10, 19, 30, 43, 118, 207, 220, 259], "w_name": ["aao_lag2", "aao_lag3", "pna_lag4", "poleur_lag5", "aao_lag14", "nino34_lag24", "era5_lag5", "giss_lag20"], "b": -0.5676284979879901, "sign_score": 0.5175438596491229}, "59107": {"best_alpha": 0.43464003700113923, "w": [3.5835304285639498, -5.683412320216182, 3.583061081357278, 0.342382184877837, -0.9333303713961408, -2.0177789306139515, -5.15702345242365, 0.7978546173171871, -3.039025742833207, -1.1068444400950395, -5.068321994679614, 8.981076229281493, 6.797006586510884, -1.372197841676839, -2.2036413599320483, -0.787144404266741], "w_idx": [8, 10, 21, 37, 43, 55, 70, 118, 140, 154, 190, 207, 210, 247, 249, 259], "w_name": ["wp_lag1", "aao_lag2", "pna_lag3", "aao_lag5", "poleur_lag5", "aao_lag7", "poleur_lag8", "aao_lag14", "epnp_lag16", "aao_lag18", "aao_lag22", "nino34_lag24", "pna_lag24", "giss_lag8", "giss_lag10", "giss_lag20"], "b": 2.8116887751696, "sign_score": 0.5087719298245614}, "59109": {"best_alpha": 0.40042661921748796, "w": [0.2533379047614548, -4.27335244595197, 1.196928920142818, 0.8141465285060303, -0.5235334586352695, -6.895763697195566, -0.44804427042346595, -0.08770150701846528, -0.1744518197792635, -3.7030687214056033, 7.044211254535815, 0.22055218966601625, -0.14193229838381796, -2.72911962080243, -0.7633601426199778, -1.7870669172569975], "w_idx": [1, 10, 21, 30, 69, 70, 140, 145, 148, 190, 207, 210, 236, 247, 259, 262], "w_name": ["aao_lag1", "aao_lag2", "pna_lag3", "pna_lag4", "ao_lag8", "poleur_lag8", "epnp_lag16", "aao_lag17", "qbo_lag17", "aao_lag22", "nino34_lag24", "pna_lag24", "era5_lag21", "giss_lag8", "giss_lag20", "giss_lag23"], "b": 1.4269245911337212, "sign_score": 0.4298245614035088}, "59114": {"best_alpha": 0.3266581406136235, "w": [2.482611130799719, -5.764490353390352, -5.126295024425237, 1.5481739379358135, -1.2804977083165376, 2.3570640395692504, -0.8197570870667353, -5.847244127772067, -4.37463837066353, -2.588313115982991, 0.2201418741054754, -0.5781033174015682, 2.2656792704815323, 3.791445832939547, 0.6057717940282085, -2.308027661445355, 0.91377450508499, -0.009471640940158604, 0.16051107426403152, 1.5992342935204653, 0.023487007023792188, 1.9334628225067318, 2.593115844015356, -0.4814404735264104, -3.4445339817936804, -1.173804462715032, 7.3258051451528265, -5.502574316383298, 0.13714227720621258, 1.0079744426291557, 0.3642775357622904, -3.1264026325081367, -0.4783829397481986], "w_idx": [1, 10, 19, 21, 35, 37, 41, 43, 69, 70, 82, 93, 104, 118, 133, 140, 143, 145, 163, 164, 165, 173, 185, 188, 190, 200, 207, 208, 211, 220, 222, 259, 262], "w_name": ["aao_lag1", "aao_lag2", "aao_lag3", "pna_lag3", "wp_lag4", "aao_lag5", "epnp_lag5", "poleur_lag5", "ao_lag8", "poleur_lag8", "aao_lag10", "pna_lag11", "epnp_lag12", "aao_lag14", "poleur_lag15", "epnp_lag16", "wp_lag16", "aao_lag17", "aao_lag19", "nao_lag19", "pna_lag19", "nao_lag20", "epnp_lag21", "wp_lag21", "aao_lag22", "nao_lag23", "nino34_lag24", "aao_lag24", "qbo_lag24", "era5_lag5", "era5_lag7", "giss_lag20", "giss_lag23"], "b": -0.6421416007209655, "sign_score": 0.43859649122807015}, "59116": {"best_alpha": 0.4470293710386298, "w": [-3.7030989186821865, -0.1887649336190523, -1.5003986248066905, -1.2464514164982927, 2.898050285330088, 3.9830668971189698, 0.35486222440842735, -4.962856993529534, 2.3302132914751965, -2.2114566164169176, -3.962140571758945, -0.7354225759114595], "w_idx": [10, 19, 70, 75, 82, 118, 173, 190, 207, 208, 259, 262], "w_name": ["aao_lag2", "aao_lag3", "poleur_lag8", "pna_lag9", "aao_lag10", "aao_lag14", "nao_lag20", "aao_lag22", "nino34_lag24", "aao_lag24", "giss_lag20", "giss_lag23"], "b": 1.2331564342487409, "sign_score": 0.5263157894736842}, "59117": {"best_alpha": 0.5866672396183402, "w": [-2.6672058949697424, -2.7448908307629316, -4.1879247322977085, 1.459784187720543, -2.191512120206313], "w_idx": [10, 70, 190, 207, 259], "w_name": ["aao_lag2", "poleur_lag8", "aao_lag22", "nino34_lag24", "giss_lag20"], "b": -0.617795948411028, "sign_score": 0.49122807017543857}, "59209": {"best_alpha": 0.31472367870872553, "w": [-0.42978639267530094, 0.6355135612621422, -3.3990228277766703, -0.5019563629279606, 4.794378207253503, -0.13645697405797033, -1.9680721090105364, 3.7293316478457523, 2.2000275664180102, -3.9033644372602256, -2.818220317647967, -3.6860578058729008, -1.6211081296068715, -0.629211389822328, -0.09616511388563738, -1.8071663797231867], "w_idx": [71, 78, 89, 102, 104, 120, 124, 127, 136, 147, 159, 210, 223, 236, 244, 254], "w_name": ["wp_lag8", "ao_lag9", "wp_lag10", "pna_lag12", "epnp_lag12", "pna_lag14", "poleur_lag14", "aao_lag15", "aao_lag16", "pna_lag17", "ao_lag18", "pna_lag24", "era5_lag8", "era5_lag21", "giss_lag5", "giss_lag15"], "b": 0.25847376003663713, "sign_score": 0.5}, "59211": {"best_alpha": 0.4366368139470482, "w": [1.6571275250054918, -5.3035507275474805], "w_idx": [104, 246], "w_name": ["epnp_lag12", "giss_lag7"], "b": -0.30198567140417154, "sign_score": 0.5526315789473685}, "59213": {"best_alpha": 0.46417753771044, "w": [-5.40308717036882e-15], "w_idx": [246], "w_name": ["giss_lag7"], "b": -2.1375073099415185, "sign_score": 0.5526315789473685}, "59218": {"best_alpha": 0.47009606496085266, "w": [0.3010938863757415, 0.19652263071859763, -1.5205610140863577, -0.42111300328265683, 0.5431042218420611, -0.546484077297163, -3.0032517586118983], "w_idx": [104, 107, 147, 161, 226, 236, 246], "w_name": ["epnp_lag12", "wp_lag12", "pna_lag17", "wp_lag18", "era5_lag11", "era5_lag21", "giss_lag7"], "b": 0.4245744370067364, "sign_score": 0.47368421052631576}, "59224": {"best_alpha": 0.45175329576102113, "w": [-2.386630633338561, -2.039587896408816], "w_idx": [147, 246], "w_name": ["pna_lag17", "giss_lag7"], "b": -1.822060968238115, "sign_score": 0.543859649122807}, "59227": {"best_alpha": 0.5500663852219663, "w": [-0.018960656780911325, -1.3368409781716921], "w_idx": [147, 246], "w_name": ["pna_lag17", "giss_lag7"], "b": 0.4778501377790212, "sign_score": 0.47368421052631576}, "59228": {"best_alpha": 0.4022427615552457, "w": [-1.6970572723368211, 0.6782464385707014, 1.5104454399088731, -6.217402318197944, 0.8267540151517103], "w_idx": [77, 104, 127, 147, 213], "w_name": ["epnp_lag9", "epnp_lag12", "aao_lag15", "pna_lag17", "ao_lag24"], "b": -1.7099452117770289, "sign_score": 0.5}, "59229": {"best_alpha": 0.2919571505807338, "w": [-5.597141595828692, -0.390400242493031, -5.535686598183732, 0.26665940903672314, 1.1946858103592557, -1.4648555565614472, -1.2702640654234523, 0.842966440787838, -0.7008489048210461, -0.35780324515399353, -3.069082998840709, -2.2429855518067234, -0.5004706075861924, -4.137950931093304, 0.05168426223538088, -0.2771664603050421, 0.6672051471010302, 1.8362424391834078, -1.3409347244074525], "w_idx": [77, 79, 102, 104, 107, 115, 124, 136, 140, 145, 147, 159, 191, 210, 213, 223, 225, 248, 256], "w_name": ["epnp_lag9", "poleur_lag9", "pna_lag12", "epnp_lag12", "wp_lag12", "poleur_lag13", "poleur_lag14", "aao_lag16", "epnp_lag16", "aao_lag17", "pna_lag17", "ao_lag18", "nao_lag22", "pna_lag24", "ao_lag24", "era5_lag8", "era5_lag10", "giss_lag9", "giss_lag17"], "b": -0.95488984527849, "sign_score": 0.4473684210526316}, "59230": {"best_alpha": 0.4807609197892437, "w": [7.676641591158332, -0.2495532768848574, -5.42680195138342, 4.948528989343024, -2.117220259860129, -0.8550858214060241, -1.7202511452098321, 2.337296463876893, -0.8268288306262072, 0.4859677675691443], "w_idx": [104, 120, 124, 127, 147, 154, 186, 224, 236, 263], "w_name": ["epnp_lag12", "pna_lag14", "poleur_lag14", "aao_lag15", "pna_lag17", "aao_lag18", "ao_lag21", "era5_lag9", "era5_lag21", "giss_lag24"], "b": -1.7313970572165447, "sign_score": 0.5087719298245614}, "59238": {"best_alpha": 0.5034909426041133, "w": [-0.4561610357711442, 1.0363622793010911, -0.17720598468673202, -1.9018320789550467, 2.3649192101072827], "w_idx": [102, 107, 147, 168, 261], "w_name": ["pna_lag12", "wp_lag12", "pna_lag17", "ao_lag19", "giss_lag22"], "b": -3.324055502184403, "sign_score": 0.47368421052631576}, "59241": {"best_alpha": 0.46023293204330934, "w": [-0.3182300494651166, -3.3845314766833536, 1.897932169419703, 4.372536434568729, 1.4021718208200753, -1.416125810679363, 1.007697078016014, 3.8552621037658814], "w_idx": [23, 65, 104, 109, 113, 154, 224, 258], "w_name": ["epnp_lag3", "nao_lag8", "epnp_lag12", "aao_lag13", "epnp_lag13", "aao_lag18", "era5_lag9", "giss_lag19"], "b": -2.1693322007828666, "sign_score": 0.49122807017543857}, "59242": {"best_alpha": 0.5943716228483724, "w": [2.5734004772709778, 0.12185311529343248], "w_idx": [136, 224], "w_name": ["aao_lag16", "era5_lag9"], "b": -1.4276559010320178, "sign_score": 0.5175438596491229}, "59246": {"best_alpha": 0.36557011890709196, "w": [1.7636996686095556, 0.3213022301662528, -0.8394098830624424, -1.8539447643565472, 0.5309393903751342, 1.484072002942636, 4.765689754710512], "w_idx": [127, 136, 154, 186, 234, 245, 258], "w_name": ["aao_lag15", "aao_lag16", "aao_lag18", "ao_lag21", "era5_lag19", "giss_lag6", "giss_lag19"], "b": -2.5924494419296265, "sign_score": 0.4824561403508772}, "59249": {"best_alpha": 0.5901917748957897, "w": [-0.22321283018827096, 3.7902129382505643, 1.2030882225608104], "w_idx": [154, 258, 261], "w_name": ["aao_lag18", "giss_lag19", "giss_lag22"], "b": -3.3551693873739894, "sign_score": 0.6140350877192983}, "59255": {"best_alpha": 0.6826453743932136, "w": [2.3528517180186315e-15], "w_idx": [234], "w_name": ["era5_lag19"], "b": -2.8460160818713525, "sign_score": 0.543859649122807}, "59264": {"best_alpha": 0.5124765057005063, "w": [2.329217704819624, 1.008198648388909], "w_idx": [104, 234], "w_name": ["epnp_lag12", "era5_lag19"], "b": -0.9315104646559306, "sign_score": 0.5964912280701754}, "59268": {"best_alpha": 0.5192326908433675, "w": [0.7229152586172854], "w_idx": [234], "w_name": ["era5_lag19"], "b": -1.677652264225396, "sign_score": 0.5701754385964912}, "59269": {"best_alpha": 0.5986107755003578, "w": [-0.2605867054141224], "w_idx": [223], "w_name": ["era5_lag8"], "b": -0.3185397072456819, "sign_score": 0.543859649122807}, "59271": {"best_alpha": 0.6685643986089985, "w": [-0.5770751576701744, 2.7035764809172464], "w_idx": [250, 258], "w_name": ["giss_lag11", "giss_lag19"], "b": -1.5409185245906665, "sign_score": 0.40350877192982454}, "59276": {"best_alpha": 0.504581756854004, "w": [0.2254869964656757, -3.0779831571076857, -1.3742047345981883, 0.10270896085811865, 1.7317901770974253, 0.5730610919226157, -5.420488803749466, 2.5226225395956634, -0.601773281853786], "w_idx": [79, 168, 190, 203, 207, 210, 250, 258, 262], "w_name": ["poleur_lag9", "ao_lag19", "aao_lag22", "epnp_lag23", "nino34_lag24", "pna_lag24", "giss_lag11", "giss_lag19", "giss_lag23"], "b": -0.7652680937477414, "sign_score": 0.4824561403508772}, "59279": {"best_alpha": 0.7008057384233829, "w": [-4.8183720472128076e-15], "w_idx": [168], "w_name": ["ao_lag19"], "b": -3.1677997076023394, "sign_score": 0.5087719298245614}, "59280": {"best_alpha": 0.5520086504761809, "w": [4.059644594021251, 0.8525172951893105, 1.7915271440560976, 2.2791141917430187, -3.6268303058428937, -1.3481406930448103, 12.512693033269274, -1.472943477938016, 1.5163141784976364, -1.2889618107465977, -6.996862974875839], "w_idx": [8, 16, 17, 46, 197, 199, 207, 212, 234, 250, 259], "w_name": ["wp_lag1", "poleur_lag2", "wp_lag2", "aao_lag6", "wp_lag22", "aao_lag23", "nino34_lag24", "epnp_lag24", "era5_lag19", "giss_lag11", "giss_lag20"], "b": 2.788066853243326, "sign_score": 0.5263157894736842}, "59285": {"best_alpha": 0.7862309923867733, "w": [1.8716725047298601, 3.997906687287439, 0.18475972553332506, 7.370516185998192], "w_idx": [30, 173, 207, 210], "w_name": ["pna_lag4", "nao_lag20", "nino34_lag24", "pna_lag24"], "b": -1.7727468756782285, "sign_score": 0.5087719298245614}, "59287": {"best_alpha": 0.809948114797292, "w": [3.027782372686155e-15], "w_idx": [30], "w_name": ["pna_lag4"], "b": -6.090460526315797, "sign_score": 0.5175438596491229}, "59288": {"best_alpha": 0.5337052756855707, "w": [5.407366577784933, -0.31947306220346605, -3.1894715276049945, 2.8860978469913343, 2.925171480012162, -2.588202922768429, 3.5947763484633084], "w_idx": [30, 73, 199, 210, 248, 250, 258], "w_name": ["pna_lag4", "aao_lag9", "aao_lag23", "pna_lag24", "giss_lag9", "giss_lag11", "giss_lag19"], "b": -6.638992594805681, "sign_score": 0.5263157894736842}, "59289": {"best_alpha": 0.933056184245543, "w": [5.47211046935511], "w_idx": [30], "w_name": ["pna_lag4"], "b": -1.826679222412101, "sign_score": 0.6403508771929824}, "59290": {"best_alpha": 0.8959643856385183, "w": [2.686105342953378, -1.9487373095294187, 3.169854930276353, 4.475594779751443, 0.7161921671082019, -3.0259514091433015, -2.3173432209590215], "w_idx": [30, 140, 173, 210, 234, 249, 259], "w_name": ["pna_lag4", "epnp_lag16", "nao_lag20", "pna_lag24", "era5_lag19", "giss_lag10", "giss_lag20"], "b": 0.4910294252514771, "sign_score": 0.5087719298245614}, "59294": {"best_alpha": 0.9252833313394345, "w": [6.05556474537231e-15], "w_idx": [30], "w_name": ["pna_lag4"], "b": 0.3730190058479467, "sign_score": 0.4298245614035088}, "59298": {"best_alpha": 0.7498581873463368, "w": [9.083347118058464e-15], "w_idx": [30], "w_name": ["pna_lag4"], "b": 0.027967836257316282, "sign_score": 0.4473684210526316}, "59303": {"best_alpha": 0.5338381549297466, "w": [-1.329583419701823, 1.202448880283591, -4.922350539971853, -4.542580943826971, 3.5351223063514015, -1.8832488312818094], "w_idx": [10, 30, 70, 190, 207, 259], "w_name": ["aao_lag2", "pna_lag4", "poleur_lag8", "aao_lag22", "nino34_lag24", "giss_lag20"], "b": 1.3579548236351884, "sign_score": 0.5526315789473685}, "59304": {"best_alpha": 0.8278725275049336, "w": [-3.0924680764835952e-15], "w_idx": [70], "w_name": ["poleur_lag8"], "b": 2.768735380116946, "sign_score": 0.38596491228070173}, "59310": {"best_alpha": 0.7701576450395866, "w": [-4.604235518465069, -0.33197042993488085], "w_idx": [70, 190], "w_name": ["poleur_lag8", "aao_lag22"], "b": 3.23888377295474, "sign_score": 0.4298245614035088}, "59312": {"best_alpha": 0.8349074881766222, "w": [-3.141232335078706e-15], "w_idx": [190], "w_name": ["aao_lag22"], "b": 2.0478289473684237, "sign_score": 0.4298245614035088}, "59313": {"best_alpha": 0.7495884375660865, "w": [-2.848062066166952, 0.9440716745538127, -2.1982426325673394], "w_idx": [190, 207, 208], "w_name": ["aao_lag22", "nino34_lag24", "aao_lag24"], "b": 2.0222482015323204, "sign_score": 0.4824561403508772}, "59314": {"best_alpha": 0.8727101233970452, "w": [-1.2057121834802966, -0.8510702656391509, 3.8915651283529002, -1.4533749711969848], "w_idx": [190, 199, 207, 236], "w_name": ["aao_lag22", "aao_lag23", "nino34_lag24", "era5_lag21"], "b": 2.777555373958343, "sign_score": 0.5}, "59315": {"best_alpha": 0.6456282601655845, "w": [2.346510252809977, -4.000168672570989, -0.48062038599415946, 1.661935799926936, -2.673964200255443, 2.1107797020565493, -1.0045602393202449, -0.7383248126100216], "w_idx": [51, 70, 89, 129, 190, 207, 236, 259], "w_name": ["ao_lag6", "poleur_lag8", "wp_lag10", "pna_lag15", "aao_lag22", "nino34_lag24", "era5_lag21", "giss_lag20"], "b": 3.276047669824605, "sign_score": 0.49122807017543857}, "59316": {"best_alpha": 0.7921789739297067, "w": [-1.301477803971717, 0.6854782778462695, -3.508603406858005], "w_idx": [48, 51, 190], "w_name": ["pna_lag6", "ao_lag6", "aao_lag22"], "b": 4.255300429165951, "sign_score": 0.45614035087719296}, "59318": {"best_alpha": 0.7144701109134018, "w": [-1.3926646976546413, -1.5053114783472268, -2.9234107045091093, -0.11623631544029805, -0.45639579632666866, 0.6089170330276136, -3.3950646240889375, -0.6618951018321005, 1.9388297731825368, -0.18617054787102674, -4.866207225700341], "w_idx": [48, 66, 70, 130, 139, 164, 190, 191, 207, 208, 259], "w_name": ["pna_lag6", "pna_lag8", "poleur_lag8", "qbo_lag15", "qbo_lag16", "nao_lag19", "aao_lag22", "nao_lag22", "nino34_lag24", "aao_lag24", "giss_lag20"], "b": 3.6326448788946024, "sign_score": 0.543859649122807}, "59319": {"best_alpha": 0.8297111379646015, "w": [-2.3483347937214285], "w_idx": [190], "w_name": ["aao_lag22"], "b": 4.410266889920786, "sign_score": 0.3508771929824561}, "59324": {"best_alpha": 0.8036766952757702, "w": [4.235880266385053, 0.14546121402926118, -5.139339569030683, -1.3832074376143624], "w_idx": [51, 60, 208, 259], "w_name": ["ao_lag6", "ao_lag7", "aao_lag24", "giss_lag20"], "b": 2.7363956222306185, "sign_score": 0.543859649122807}, "59419": {"best_alpha": 0.557897882076893, "w": [-3.057511002391489e-15], "w_idx": [147], "w_name": ["pna_lag17"], "b": -0.23448099415204982, "sign_score": 0.5701754385964912}, "59421": {"best_alpha": 0.5191003899096318, "w": [-3.948725291736868, -0.6919113541115848], "w_idx": [147, 236], "w_name": ["pna_lag17", "era5_lag21"], "b": -1.184010071620591, "sign_score": 0.5263157894736842}, "59425": {"best_alpha": 0.2965476280870057, "w": [-2.2312959863442368, -0.16266788292214956, -1.0236424039061713, 0.7200373871969469, -0.4355780679614955, -0.9667669406663738, 0.8285097140083191, 2.2007585381461334, -1.8742723545846778, -5.80753596821524, -1.0223029719784804, -2.48685377077676, 4.0380701207354095, -0.2836951665726093, -0.332299850324891, -1.62497471279311, -1.55207702442265, -0.5523819356168961, 2.6788896715046486, 0.9762901048289596], "w_idx": [25, 69, 77, 88, 124, 126, 127, 136, 142, 147, 153, 159, 213, 223, 232, 246, 248, 255, 258, 261], "w_name": ["poleur_lag3", "ao_lag8", "epnp_lag9", "poleur_lag10", "poleur_lag14", "nino34_lag15", "aao_lag15", "aao_lag16", "poleur_lag16", "pna_lag17", "nino34_lag18", "ao_lag18", "ao_lag24", "era5_lag8", "era5_lag17", "giss_lag7", "giss_lag9", "giss_lag16", "giss_lag19", "giss_lag22"], "b": -0.859896808308567, "sign_score": 0.5964912280701754}, "59426": {"best_alpha": 0.3023636342779348, "w": [0.4390917717896292, 1.8310256915417793, 0.4626202374221581, 2.8382732664946917, 2.4774837121419675, 4.256634360846289, -3.1958710086403097, -1.3293771799914487, -1.63292769394785, -2.051184929126199, 1.8075566090551078, 0.10364190139560367, -1.1202839233458093, -4.952836101844616, -4.372181878943811, 0.14630562929027524, -0.3715824239539892, -2.4537773111519097, -1.8114384457019157, 2.8452477455180674, -0.008761749120470315, -0.7534798564987771, -2.543650837629297, -2.1112936592559683, -0.9134700387889497, -0.02542864711201737, -0.29750682407985535, 0.5489079337957148], "w_idx": [7, 26, 42, 51, 84, 88, 89, 102, 116, 124, 127, 136, 142, 147, 159, 165, 168, 177, 195, 213, 230, 232, 236, 244, 249, 256, 257, 261], "w_name": ["poleur_lag1", "wp_lag3", "ao_lag5", "ao_lag6", "pna_lag10", "poleur_lag10", "wp_lag10", "pna_lag12", "wp_lag13", "poleur_lag14", "aao_lag15", "aao_lag16", "poleur_lag16", "pna_lag17", "ao_lag18", "pna_lag19", "ao_lag19", "ao_lag20", "ao_lag22", "ao_lag24", "era5_lag15", "era5_lag17", "era5_lag21", "giss_lag5", "giss_lag10", "giss_lag17", "giss_lag18", "giss_lag22"], "b": -0.4880094985616653, "sign_score": 0.4473684210526316}, "59427": {"best_alpha": 0.2427100717326533, "w": [-0.21199061562528243, 1.8042659639657788, -1.9960764145819663, -0.047340758438912896, 0.25219604043599264, -3.715715472450368, -2.465044094422977, -5.176055501083164, -2.8985078090771053, 0.7582673010825665, -0.35178877159760097, -2.9046276243780507, 4.545435790136576, -2.340906058488785, -0.8652818717451074, -6.910636667988143, -0.5261817978616693, -3.377695481235636, -0.03234230678528287, 3.064359985231522, -0.12465358307192861, -0.6043704964911881, -0.06560304502122302, -0.4871674522425762, -1.6769556890854618, -0.4666597281580195, -0.7707586219436688, 1.6618507809624703], "w_idx": [1, 12, 23, 28, 39, 55, 69, 71, 89, 104, 122, 124, 127, 147, 154, 159, 172, 177, 210, 213, 230, 232, 233, 236, 248, 256, 259, 261], "w_name": ["aao_lag1", "pna_lag2", "epnp_lag3", "aao_lag4", "pna_lag5", "aao_lag7", "ao_lag8", "wp_lag8", "wp_lag10", "epnp_lag12", "epnp_lag14", "poleur_lag14", "aao_lag15", "pna_lag17", "aao_lag18", "ao_lag18", "aao_lag20", "ao_lag20", "pna_lag24", "ao_lag24", "era5_lag15", "era5_lag17", "era5_lag18", "era5_lag21", "giss_lag9", "giss_lag17", "giss_lag20", "giss_lag22"], "b": 0.9606569045761775, "sign_score": 0.4473684210526316}, "59429": {"best_alpha": 0.7790235058458962, "w": [-6.0115761465138995e-15], "w_idx": [89], "w_name": ["wp_lag10"], "b": -2.9321271929824584, "sign_score": 0.5701754385964912}, "59431": {"best_alpha": 0.3041289927092716, "w": [-0.9488820192200539, 0.010525275724146379, 0.4001679029480199, 2.2989003494271834, -2.216167219755836, -3.90086705197056, 2.628753480540761, -3.3762955511899264, -2.19969603225884, 2.7634598015857526, -3.6659686346293388, 2.115287129007927, -0.48041540448518805, -4.11315314288335, -0.06332070747736342, -3.167257704042291, 1.529150180112156, -2.7007329539619356, -4.657003479468679, -0.9865018630859769, -2.9233067101826644, -1.0663412576539677, 2.8123240333027284, -0.016560902843652667, -0.6255322876186636, -1.1027542635348866, -1.521825436074144, -0.6602449684145897, 0.36744557357303775, 3.9712499795309135], "w_idx": [5, 7, 20, 26, 77, 80, 88, 89, 102, 104, 124, 136, 145, 147, 154, 159, 165, 168, 177, 181, 195, 199, 213, 216, 223, 232, 236, 249, 258, 261], "w_name": ["epnp_lag1", "poleur_lag1", "nao_lag3", "wp_lag3", "epnp_lag9", "wp_lag9", "poleur_lag10", "wp_lag10", "pna_lag12", "epnp_lag12", "poleur_lag14", "aao_lag16", "aao_lag17", "pna_lag17", "aao_lag18", "ao_lag18", "pna_lag19", "ao_lag19", "ao_lag20", "aao_lag21", "ao_lag22", "aao_lag23", "ao_lag24", "era5_lag1", "era5_lag8", "era5_lag17", "era5_lag21", "giss_lag10", "giss_lag19", "giss_lag22"], "b": -0.751894034046189, "sign_score": 0.5175438596491229}, "59435": {"best_alpha": 0.40076639008126536, "w": [0.7324642479398032, -6.083518283024424, -3.212037719930305, 1.596808586292689, -0.3057377406942472, -0.5979327800140257, -1.0305069764846178, -0.4590825512839816, -2.8226098656857928, -1.727658891228877, -0.6090683109861954, 6.001543301291799], "w_idx": [17, 89, 102, 104, 145, 147, 168, 195, 210, 236, 249, 261], "w_name": ["wp_lag2", "wp_lag10", "pna_lag12", "epnp_lag12", "aao_lag17", "pna_lag17", "ao_lag19", "ao_lag22", "pna_lag24", "era5_lag21", "giss_lag10", "giss_lag22"], "b": -3.430993410150733, "sign_score": 0.5614035087719298}, "59441": {"best_alpha": 0.5905873949571524, "w": [-0.5082027379728996, 3.174591511517605, -3.049619331680046, -0.5063305996099227, 0.3127826889325757, 2.3628326172481904, 4.328040451907629], "w_idx": [55, 107, 145, 195, 234, 258, 261], "w_name": ["aao_lag7", "wp_lag12", "aao_lag17", "ao_lag22", "era5_lag19", "giss_lag19", "giss_lag22"], "b": -0.13277742298517592, "sign_score": 0.5087719298245614}, "59448": {"best_alpha": 0.5902380946313986, "w": [0.5811349874683771, -1.4729176485904123, -0.20038726326384496, 0.5465571870675808, 2.311591022683518, 0.14470574079898213, -0.29665176273255345, -1.8001901504200009, -4.024918105509319, -0.8799048377065507, 1.041722677204035, -4.2582954241014095, 3.5839638819161825, 8.860700861453225], "w_idx": [17, 65, 82, 104, 136, 163, 166, 182, 186, 223, 234, 236, 258, 261], "w_name": ["wp_lag2", "nao_lag8", "aao_lag10", "epnp_lag12", "aao_lag16", "aao_lag19", "qbo_lag19", "nao_lag21", "ao_lag21", "era5_lag8", "era5_lag19", "era5_lag21", "giss_lag19", "giss_lag22"], "b": -4.099793279203642, "sign_score": 0.4473684210526316}, "59449": {"best_alpha": 0.9034553162223535, "w": [1.702039745724501], "w_idx": [234], "w_name": ["era5_lag19"], "b": 0.854727957486919, "sign_score": 0.49122807017543857}, "59451": {"best_alpha": 0.7282240863267141, "w": [2.1077754117065877], "w_idx": [234], "w_name": ["era5_lag19"], "b": -1.3712559803807112, "sign_score": 0.5087719298245614}, "59452": {"best_alpha": 0.6711660220160259, "w": [1.2157748539381765], "w_idx": [234], "w_name": ["era5_lag19"], "b": -1.7687161994118268, "sign_score": 0.6140350877192983}, "59453": {"best_alpha": 0.6492783666968817, "w": [1.8484145931546228, 0.9850992525607837], "w_idx": [234, 261], "w_name": ["era5_lag19", "giss_lag22"], "b": -1.2402947660872436, "sign_score": 0.5}, "59454": {"best_alpha": 0.35178349415418375, "w": [2.4301363015011983, -0.03869099501575847, 2.2614687620755087, 1.6594888988668395, -1.083634671349803, -3.061814034790395, -0.4755339136190555, -0.05663077327140738, -0.3371129155614187, 0.338878204200401, -0.8225396455418673, -0.4211088909448566, -2.690981273128803, -2.1836419518858796, -5.053883490346541, -0.06371440277098246, -1.3242018437420313, -0.7655060777158029, 2.0349315850399994, 1.0576158477412656, -2.0765894616970875], "w_idx": [17, 28, 30, 47, 53, 55, 65, 71, 119, 158, 159, 166, 168, 177, 190, 222, 223, 227, 234, 258, 262], "w_name": ["wp_lag2", "aao_lag4", "pna_lag4", "nao_lag6", "wp_lag6", "aao_lag7", "nao_lag8", "wp_lag8", "nao_lag14", "epnp_lag18", "ao_lag18", "qbo_lag19", "ao_lag19", "ao_lag20", "aao_lag22", "era5_lag7", "era5_lag8", "era5_lag12", "era5_lag19", "giss_lag19", "giss_lag23"], "b": -2.1048121661130894, "sign_score": 0.5526315789473685}, "59456": {"best_alpha": 0.757382135780306, "w": [-1.942663999440494, 1.7016828643747857, -0.4287268704993001], "w_idx": [223, 234, 250], "w_name": ["era5_lag8", "era5_lag19", "giss_lag11"], "b": -1.8082925372344263, "sign_score": 0.6052631578947368}, "59457": {"best_alpha": 0.9354183189409883, "w": [1.747699121467081], "w_idx": [234], "w_name": ["era5_lag19"], "b": -2.8462714446320865, "sign_score": 0.5175438596491229}, "59462": {"best_alpha": 0.2729797344143164, "w": [0.018617589752796166, 4.716995783610309, -1.3034871430719792, 2.2848536529477155, -2.1789557179758585, -3.7242503048640776, -1.8160052635767987, -0.01330967127161397, 0.7456882029557509, -1.4830289614428682, -0.08134392915568481, -1.8375401473837532, -0.30987611339768184, 1.106405889293487, 3.7358159577730508, -1.371227763714422, -6.378779828512606, -0.09810126372172506, 2.8846004256201905, -3.259086255748766, -0.7314101751341326, 0.2454394667867875, -0.7834582997407703, -2.8013619068612305, -0.9813034471180642, 1.4421565866630222, 1.2122647195033789, -1.0339647929813656, -0.8916261454908944, -0.32589263484488024, -0.0692212622695252, -1.5096213629448834, 3.261359471648878, -0.8464395962507111, -0.27836921739587944], "w_idx": [12, 17, 33, 47, 52, 55, 61, 77, 79, 102, 112, 119, 124, 128, 136, 145, 154, 157, 179, 190, 199, 200, 208, 223, 227, 231, 234, 235, 236, 239, 250, 255, 258, 262, 263], "w_name": ["pna_lag2", "wp_lag2", "ao_lag4", "nao_lag6", "poleur_lag6", "aao_lag7", "poleur_lag7", "epnp_lag9", "poleur_lag9", "pna_lag12", "qbo_lag13", "nao_lag14", "poleur_lag14", "nao_lag15", "aao_lag16", "aao_lag17", "aao_lag18", "qbo_lag18", "wp_lag20", "aao_lag22", "aao_lag23", "nao_lag23", "aao_lag24", "era5_lag8", "era5_lag12", "era5_lag16", "era5_lag19", "era5_lag20", "era5_lag21", "era5_lag24", "giss_lag11", "giss_lag16", "giss_lag19", "giss_lag23", "giss_lag24"], "b": -1.8790746661663384, "sign_score": 0.5701754385964912}, "59470": {"best_alpha": 0.5038016840972663, "w": [4.198543552924541, 0.3961143814230891, -0.5961588295213124, -1.2330692392032567, -0.43848599618214235, -0.5303750543539059, -2.024418202243897, -0.710536032194158], "w_idx": [26, 47, 199, 223, 227, 235, 250, 251], "w_name": ["wp_lag3", "nao_lag6", "aao_lag23", "era5_lag8", "era5_lag12", "era5_lag20", "giss_lag11", "giss_lag12"], "b": 0.989626643088866, "sign_score": 0.5877192982456141}, "59471": {"best_alpha": 0.5965207924886395, "w": [-1.3929607105428456, -1.4402543434791206, 1.3207170533662276], "w_idx": [223, 250, 258], "w_name": ["era5_lag8", "giss_lag11", "giss_lag19"], "b": -2.3418311803398297, "sign_score": 0.5350877192982456}, "59473": {"best_alpha": 0.6846496710711963, "w": [1.1054088837667388, -2.6142650101837526, 5.897630835739915], "w_idx": [30, 199, 258], "w_name": ["pna_lag4", "aao_lag23", "giss_lag19"], "b": -1.4009005931019263, "sign_score": 0.5350877192982456}, "59475": {"best_alpha": 0.9446117866924674, "w": [1.19542524081126e-14], "w_idx": [26], "w_name": ["wp_lag3"], "b": -0.012521929824559607, "sign_score": 0.5701754385964912}, "59476": {"best_alpha": 0.5473574980480215, "w": [0.1637295159698469, 1.2756048610438453, -0.826961438173192, -0.6486494152307725, -2.8817999086286252, 2.440066531020726, -2.9411181512533666, -7.314786597676634, -0.8158612651095579, -2.072806510360085, -1.637047004803787, -2.8252655590158247, 8.010977596586974, 3.4041188781959186], "w_idx": [26, 30, 52, 53, 65, 142, 159, 161, 223, 236, 247, 250, 258, 261], "w_name": ["wp_lag3", "pna_lag4", "poleur_lag6", "wp_lag6", "nao_lag8", "poleur_lag16", "ao_lag18", "wp_lag18", "era5_lag8", "era5_lag21", "giss_lag8", "giss_lag11", "giss_lag19", "giss_lag22"], "b": -4.449629737407166, "sign_score": 0.5175438596491229}, "59477": {"best_alpha": 1.236783621212191, "w": [1.8693688149315102e-14], "w_idx": [151], "w_name": ["poleur_lag17"], "b": 0.07555555555555912, "sign_score": 0.38596491228070173}, "59478": {"best_alpha": 0.9473143957496449, "w": [1.5562137528538769, 2.403672030220279], "w_idx": [26, 258], "w_name": ["wp_lag3", "giss_lag19"], "b": 1.071194994236985, "sign_score": 0.40350877192982454}, "59480": {"best_alpha": 0.6224105480971516, "w": [5.14616238515464, 3.961999937925571, -2.063959153951352, 5.884122722235947], "w_idx": [30, 210, 250, 258], "w_name": ["pna_lag4", "pna_lag24", "giss_lag11", "giss_lag19"], "b": -2.9441996618181934, "sign_score": 0.49122807017543857}, "59481": {"best_alpha": 0.7773373638451814, "w": [4.351328681840696, 2.2840575561460996], "w_idx": [30, 258], "w_name": ["pna_lag4", "giss_lag19"], "b": -4.586561459083231, "sign_score": 0.5964912280701754}, "59485": {"best_alpha": 0.6015757114209567, "w": [9.649638122910346, -0.833416220466734, -0.23613907244690338, -3.0991052021733374, -4.9236474741454215, -1.539031584658531, 0.3420854055104436, -1.5872564961884479, -1.34510075484579, 0.14061833588730058, -1.748809941668852, -0.5270215057299584, 9.44158830026544, 6.9670334307959525], "w_idx": [30, 55, 65, 134, 159, 161, 167, 213, 223, 234, 236, 247, 258, 261], "w_name": ["pna_lag4", "aao_lag7", "nao_lag8", "wp_lag15", "ao_lag18", "wp_lag18", "epnp_lag19", "ao_lag24", "era5_lag8", "era5_lag19", "era5_lag21", "giss_lag8", "giss_lag19", "giss_lag22"], "b": -6.456715906511222, "sign_score": 0.6052631578947368}, "59487": {"best_alpha": 0.9567994962229018, "w": [-2.632757941396432, 5.2975916366192655], "w_idx": [236, 258], "w_name": ["era5_lag21", "giss_lag19"], "b": 0.6464839424590814, "sign_score": 0.5}, "59488": {"best_alpha": 0.9364592704123413, "w": [3.8408099261873248, -4.5418906952072975, 3.090320083982953, 9.852553289352633, -5.41241827402689], "w_idx": [30, 236, 248, 258, 259], "w_name": ["pna_lag4", "era5_lag21", "giss_lag9", "giss_lag19", "giss_lag20"], "b": 0.3761349709875188, "sign_score": 0.5701754385964912}, "59493": {"best_alpha": 1.1179311361735758, "w": [-3.861221429390503e-15], "w_idx": [236], "w_name": ["era5_lag21"], "b": 3.3944078947368417, "sign_score": 0.37719298245614036}, "59502": {"best_alpha": 0.9757035463392172, "w": [-1.789241000117041, -7.212489869530585], "w_idx": [10, 259], "w_name": ["aao_lag2", "giss_lag20"], "b": 3.55556782327405, "sign_score": 0.49122807017543857}, "59632": {"best_alpha": 0.8695485079436889, "w": [2.4089269723011353, -3.785039343743351, -2.897639012086267, 0.4377859101300594, 5.993086045975796], "w_idx": [104, 147, 236, 237, 261], "w_name": ["epnp_lag12", "pna_lag17", "era5_lag21", "era5_lag22", "giss_lag22"], "b": -2.4044236141962467, "sign_score": 0.5526315789473685}, "59647": {"best_alpha": 0.7734985406483927, "w": [-0.4632532751073809, -3.6488638817616685, -6.812272845649451, 0.4114768156852384], "w_idx": [77, 135, 236, 258], "w_name": ["epnp_lag9", "nino34_lag16", "era5_lag21", "giss_lag19"], "b": -1.9767728355655538, "sign_score": 0.6228070175438597}, "59655": {"best_alpha": 0.7624348328935556, "w": [0.435658524035011, -0.7798936818043368, -1.60802833533135, 10.344334958468979], "w_idx": [136, 208, 236, 258], "w_name": ["aao_lag16", "aao_lag24", "era5_lag21", "giss_lag19"], "b": -3.1976512589947785, "sign_score": 0.47368421052631576}, "59656": {"best_alpha": 0.5512637345930476, "w": [0.02337254310224965, 1.8322045345067808, -0.9268696139066205, -3.4605386301653507, 1.6632861269844217, -1.8124111837796153, -7.998758409859129, -0.5690664502456863, -10.147713760188557, -0.5198108037210534, -3.067206202048078, -0.5766558760391901, 12.219426680453793], "w_idx": [26, 47, 59, 77, 88, 124, 144, 148, 199, 221, 236, 247, 258], "w_name": ["wp_lag3", "nao_lag6", "epnp_lag7", "epnp_lag9", "poleur_lag10", "poleur_lag14", "nino34_lag17", "qbo_lag17", "aao_lag23", "era5_lag6", "era5_lag21", "giss_lag8", "giss_lag19"], "b": -0.942481693564927, "sign_score": 0.5701754385964912}, "59659": {"best_alpha": 0.7711539534405548, "w": [2.2954801810825205, 4.383488460630285], "w_idx": [26, 258], "w_name": ["wp_lag3", "giss_lag19"], "b": -2.86699816396753, "sign_score": 0.5087719298245614}, "59663": {"best_alpha": 0.9458468773675085, "w": [7.548225542176007, 1.1767972268753297, 3.454275536382791, -0.9283204122369731, 3.586811310047355, 1.2892599118992674, 2.3364436873346195, -1.1446612032982413, -3.2014314868836937, -2.8716406001422112, 20.834268795886974], "w_idx": [26, 32, 47, 80, 116, 136, 151, 190, 221, 235, 258], "w_name": ["wp_lag3", "epnp_lag4", "nao_lag6", "wp_lag9", "wp_lag13", "aao_lag16", "poleur_lag17", "aao_lag22", "era5_lag6", "era5_lag20", "giss_lag19"], "b": -4.087722690353349, "sign_score": 0.49122807017543857}, "59664": {"best_alpha": 0.9830726392959841, "w": [1.8216785383455045], "w_idx": [258], "w_name": ["giss_lag19"], "b": -3.210608627761432, "sign_score": 0.5}, "59750": {"best_alpha": 0.939155091555128, "w": [-2.3275109407128972e-15], "w_idx": [223], "w_name": ["era5_lag8"], "b": -2.884188596491222, "sign_score": 0.5614035087719298}, "59754": {"best_alpha": 0.8231537033518153, "w": [-3.7896587080892123, -2.095225414560725], "w_idx": [135, 232], "w_name": ["nino34_lag16", "era5_lag17"], "b": -1.991364650274285, "sign_score": 0.5175438596491229}, "59757": {"best_alpha": 0.8561163698655804, "w": [-0.06994410883719271, -2.275979281141837, -1.7336520770135453], "w_idx": [54, 126, 232], "w_name": ["nino34_lag7", "nino34_lag15", "era5_lag17"], "b": -8.678220856392931, "sign_score": 0.5175438596491229}, "59842": {"best_alpha": 0.4084852107596712, "w": [2.434940761425404, -2.3220146026828665, 2.0826090908617907, 0.9775958296196852, -0.2216430231658868, 3.083296527114983, -5.97081905479081, -9.933803972038575, -6.8671712872060615, 0.24465324671253785, -0.1833582983215757, -0.004100946249937366, -1.6738087356512628, -2.8654869632017586, -2.9407984780597602, -0.6226839208639179, 1.5355956069246586, -3.4686753208201035, -3.4500450450988303, -0.9187958751039963, 1.0375794389753445], "w_idx": [12, 14, 29, 53, 91, 118, 122, 135, 138, 141, 176, 179, 188, 191, 194, 215, 220, 232, 257, 259, 261], "w_name": ["pna_lag2", "epnp_lag2", "nao_lag4", "wp_lag6", "aao_lag11", "aao_lag14", "epnp_lag14", "nino34_lag16", "pna_lag16", "ao_lag16", "epnp_lag20", "wp_lag20", "wp_lag21", "nao_lag22", "epnp_lag22", "wp_lag24", "era5_lag5", "era5_lag17", "giss_lag18", "giss_lag20", "giss_lag22"], "b": -4.898461975479218, "sign_score": 0.5701754385964912}, "59843": {"best_alpha": 0.8872818756484288, "w": [-2.4291242477461853e-15], "w_idx": [232], "w_name": ["era5_lag17"], "b": -8.053019005847958, "sign_score": 0.5526315789473685}, "59845": {"best_alpha": 0.9371520479315062, "w": [-2.973653953708427], "w_idx": [135], "w_name": ["nino34_lag16"], "b": -8.01279977075138, "sign_score": 0.5350877192982456}, "59851": {"best_alpha": 0.7915960730310069, "w": [1.9479827475078693, -6.821818634790786, -0.8139319136807979, -2.535138037791972], "w_idx": [88, 126, 144, 232], "w_name": ["poleur_lag10", "nino34_lag15", "nino34_lag17", "era5_lag17"], "b": -3.338852938520558, "sign_score": 0.5526315789473685}, "59854": {"best_alpha": 1.1483407065055984, "w": [-1.7586224820594762], "w_idx": [126], "w_name": ["nino34_lag15"], "b": -4.003139166470199, "sign_score": 0.5789473684210527}, "59855": {"best_alpha": 0.6723245360217092, "w": [-0.8563748312428956, 0.7677789348970179, -1.014877427575087, -10.439815070159899, 0.3231554556204274, -3.7298902542681445, -3.12420608216091, -0.3475058522184986, 4.517999143079412, 1.2402206454342493, -0.9193365147985604, 3.3753964167569137], "w_idx": [32, 98, 135, 138, 142, 144, 179, 191, 200, 219, 232, 263], "w_name": ["epnp_lag4", "wp_lag11", "nino34_lag16", "pna_lag16", "poleur_lag16", "nino34_lag17", "wp_lag20", "nao_lag22", "nao_lag23", "era5_lag4", "era5_lag17", "giss_lag24"], "b": -7.10490851598036, "sign_score": 0.543859649122807}, "59856": {"best_alpha": 0.8781327777020072, "w": [-3.131938044585561, -2.430268509839488], "w_idx": [135, 232], "w_name": ["nino34_lag16", "era5_lag17"], "b": -1.974387243069334, "sign_score": 0.5175438596491229}, "59940": {"best_alpha": 0.8796485228944763, "w": [1.2151585969653615], "w_idx": [69], "w_name": ["ao_lag8"], "b": 1.7138397313377551, "sign_score": 0.35964912280701755}, "59941": {"best_alpha": 0.7916109275503235, "w": [5.59893223291174, -3.3432027205322767, -1.7268150642001534, -2.619524820868834, 1.4392419014419378], "w_idx": [98, 122, 138, 164, 220], "w_name": ["wp_lag11", "epnp_lag14", "pna_lag16", "nao_lag19", "era5_lag5"], "b": 0.6153299665186983, "sign_score": 0.49122807017543857}, "59948": {"best_alpha": 0.6456757202458102, "w": [1.6058770003806933e-15], "w_idx": [159], "w_name": ["ao_lag18"], "b": -6.158947368421041, "sign_score": 0.543859649122807}, "59951": {"best_alpha": 0.695983781480338, "w": [1.7807397634583664, -4.109711450467271, -0.3621388691202056, 4.778219838556684, 0.34857640629547715, -2.5021825686856083, -6.882769726256862, -0.653874437685931, 2.158774531198091, 0.630454605491713, 2.676120161364206, -1.723739301701819, -2.8625230598155973, 7.701833245304993, -3.926709297586571, -2.320015439539892, 1.0060984044043935], "w_idx": [35, 63, 68, 86, 98, 122, 126, 138, 141, 142, 149, 161, 189, 200, 218, 238, 263], "w_name": ["wp_lag4", "nino34_lag8", "epnp_lag8", "epnp_lag10", "wp_lag11", "epnp_lag14", "nino34_lag15", "pna_lag16", "ao_lag16", "poleur_lag16", "epnp_lag17", "wp_lag18", "nino34_lag22", "nao_lag23", "era5_lag3", "era5_lag23", "giss_lag24"], "b": -8.568347498758266, "sign_score": 0.5263157894736842}, "59954": {"best_alpha": 0.8849210103153081, "w": [-1.6426437902106588], "w_idx": [218], "w_name": ["era5_lag3"], "b": -7.514032880992415, "sign_score": 0.5789473684210527}, "59985": {"best_alpha": 0.4482598803193042, "w": [-0.3823328891895982, 1.0966089821556069, -0.763366706848038, 4.404956936483689, -0.4249803708497378, 3.510096863429628, 2.283931945367517, 6.002673433814421, -5.9421482855307675, 3.738050125608706, -8.89517230507311, -2.3717134595933107, 8.112267938080652, -7.4094506067990915, 2.1528141289149816, -5.896231267064595, -10.135483091046993, 5.026695549446179, -3.9761318915536874, 3.1584380742571714, -8.594155867429686, -0.8676774561002841, 2.907412159963081, 0.7978930283333081], "w_idx": [34, 53, 57, 69, 87, 98, 101, 107, 122, 149, 150, 158, 168, 173, 174, 189, 191, 200, 205, 219, 222, 234, 240, 256], "w_name": ["poleur_lag4", "wp_lag6", "pna_lag7", "ao_lag8", "ao_lag10", "wp_lag11", "nao_lag12", "wp_lag12", "epnp_lag14", "epnp_lag17", "ao_lag17", "epnp_lag18", "ao_lag19", "nao_lag20", "pna_lag20", "nino34_lag22", "nao_lag22", "nao_lag23", "poleur_lag23", "era5_lag4", "era5_lag7", "era5_lag19", "giss_lag1", "giss_lag17"], "b": 3.9449270608970974, "sign_score": 0.49122807017543857}}